<?xml version="1.0"?>
<opencv_storage>
<cascade>
  <stageType>BOOST</stageType>
  <featureType>HAAR</featureType>
  <height>20</height>
  <width>20</width>
  <stageParams>
    <boostType>GAB</boostType>
    <minHitRate>9.9500000476837158e-001</minHitRate>
    <maxFalseAlarm>5.0000000000000000e-001</maxFalseAlarm>
    <weightTrimRate>9.4999999999999996e-001</weightTrimRate>
    <maxDepth>1</maxDepth>
    <maxWeakCount>100</maxWeakCount></stageParams>
  <featureParams>
    <maxCatCount>0</maxCatCount>
    <featSize>1</featSize>
    <mode>BASIC</mode></featureParams>
  <stageNum>10</stageNum>
  <stages>
    <!-- stage 0 -->
    <_>
      <maxWeakCount>26</maxWeakCount>
      <stageThreshold>-9.7004985809326172e-001</stageThreshold>
      <weakClassifiers>
        <_>
          <internalNodes>
            0 -1 277 6.0809394344687462e-003</internalNodes>
          <leafValues>
            1.4835165441036224e-001 7.1590906381607056e-001</leafValues></_>
        <_>
          <internalNodes>
            0 -1 37 1.1339196935296059e-003</internalNodes>
          <leafValues>
            -1.6793507337570190e-001 4.3038335442543030e-001</leafValues></_>
        <_>
          <internalNodes>
            0 -1 107 -1.0893569327890873e-002</internalNodes>
          <leafValues>
            3.7506872415542603e-001 -2.3091131448745728e-001</leafValues></_>
        <_>
          <internalNodes>
            0 -1 469 1.7319659236818552e-003</internalNodes>
          <leafValues>
            -2.1108107268810272e-001 3.7588381767272949e-001</leafValues></_>
        <_>
          <internalNodes>
            0 -1 59 -1.0382834821939468e-002</internalNodes>
          <leafValues>
            3.9526155591011047e-001 -2.1012903749942780e-001</leafValues></_>
        <_>
          <internalNodes>
            0 -1 323 -9.2131731798872352e-004</internalNodes>
          <leafValues>
            3.3366894721984863e-001 -2.0588827133178711e-001</leafValues></_>
        <_>
          <internalNodes>
            0 -1 545 -4.6895407140254974e-003</internalNodes>
          <leafValues>
            4.2410176992416382e-001 -1.5197305381298065e-001</leafValues></_>
        <_>
          <internalNodes>
            0 -1 65 -7.1736099198460579e-004</internalNodes>
          <leafValues>
            3.4232199192047119e-001 -1.9642253220081329e-001</leafValues></_>
        <_>
          <internalNodes>
            0 -1 27 -3.6587517242878675e-003</internalNodes>
          <leafValues>
            3.4576827287673950e-001 -1.6441482305526733e-001</leafValues></_>
        <_>
          <internalNodes>
            0 -1 258 -7.5373088475316763e-004</internalNodes>
          <leafValues>
            3.3140322566032410e-001 -1.6207799315452576e-001</leafValues></_>
        <_>
          <internalNodes>
            0 -1 269 -9.4973322120495141e-005</internalNodes>
          <leafValues>
            2.2807194292545319e-001 -2.3490262031555176e-001</leafValues></_>
        <_>
          <internalNodes>
            0 -1 143 -5.9316144324839115e-004</internalNodes>
          <leafValues>
            2.8987175226211548e-001 -1.6374984383583069e-001</leafValues></_>
        <_>
          <internalNodes>
            0 -1 92 -4.1102361865341663e-003</internalNodes>
          <leafValues>
            4.2388617992401123e-001 -1.3159921765327454e-001</leafValues></_>
        <_>
          <internalNodes>
            0 -1 552 -2.3156423121690750e-003</internalNodes>
          <leafValues>
            3.7095072865486145e-001 -1.2880690395832062e-001</leafValues></_>
        <_>
          <internalNodes>
            0 -1 525 -8.7576964870095253e-004</internalNodes>
          <leafValues>
            2.6035559177398682e-001 -1.5259492397308350e-001</leafValues></_>
        <_>
          <internalNodes>
            0 -1 105 4.6773935901001096e-004</internalNodes>
          <leafValues>
            -1.4895911514759064e-001 3.0032545328140259e-001</leafValues></_>
        <_>
          <internalNodes>
            0 -1 336 2.2586896084249020e-003</internalNodes>
          <leafValues>
            -1.5866592526435852e-001 2.6408517360687256e-001</leafValues></_>
        <_>
          <internalNodes>
            0 -1 241 7.0612132549285889e-002</internalNodes>
          <leafValues>
            -1.2534119188785553e-001 3.2985040545463562e-001</leafValues></_>
        <_>
          <internalNodes>
            0 -1 430 -1.4531214721500874e-002</internalNodes>
          <leafValues>
            3.7112075090408325e-001 -1.1161734908819199e-001</leafValues></_>
        <_>
          <internalNodes>
            0 -1 388 -7.1206521242856979e-003</internalNodes>
          <leafValues>
            2.6995170116424561e-001 -1.6668613255023956e-001</leafValues></_>
        <_>
          <internalNodes>
            0 -1 421 -4.1735759004950523e-003</internalNodes>
          <leafValues>
            2.5701659917831421e-001 -1.6268646717071533e-001</leafValues></_>
        <_>
          <internalNodes>
            0 -1 21 -5.4619419388473034e-003</internalNodes>
          <leafValues>
            2.7551183104515076e-001 -1.3801150023937225e-001</leafValues></_>
        <_>
          <internalNodes>
            0 -1 169 3.6608879454433918e-003</internalNodes>
          <leafValues>
            -1.0091953724622726e-001 3.7655380368232727e-001</leafValues></_>
        <_>
          <internalNodes>
            0 -1 68 -8.4110395982861519e-004</internalNodes>
          <leafValues>
            2.4283960461616516e-001 -1.6993327438831329e-001</leafValues></_>
        <_>
          <internalNodes>
            0 -1 556 -1.3592725154012442e-003</internalNodes>
          <leafValues>
            3.1195366382598877e-001 -1.3705012202262878e-001</leafValues></_>
        <_>
          <internalNodes>
            0 -1 157 -8.7951304158195853e-004</internalNodes>
          <leafValues>
            2.4625718593597412e-001 -1.6453304886817932e-001</leafValues></_></weakClassifiers></_>
    <!-- stage 1 -->
    <_>
      <maxWeakCount>36</maxWeakCount>
      <stageThreshold>-8.3165359497070313e-001</stageThreshold>
      <weakClassifiers>
        <_>
          <internalNodes>
            0 -1 284 4.1332533583045006e-003</internalNodes>
          <leafValues>
            1.5722543001174927e-001 6.4742267131805420e-001</leafValues></_>
        <_>
          <internalNodes>
            0 -1 517 6.8046920932829380e-004</internalNodes>
          <leafValues>
            -1.7018733918666840e-001 3.4422251582145691e-001</leafValues></_>
        <_>
          <internalNodes>
            0 -1 400 -1.2642682995647192e-003</internalNodes>
          <leafValues>
            3.2669314742088318e-001 -1.6129469871520996e-001</leafValues></_>
        <_>
          <internalNodes>
            0 -1 465 -3.5616994136944413e-004</internalNodes>
          <leafValues>
            2.5392907857894897e-001 -2.2547610104084015e-001</leafValues></_>
        <_>
          <internalNodes>
            0 -1 286 -5.9647280722856522e-003</internalNodes>
          <leafValues>
            2.3791538178920746e-001 -2.0932537317276001e-001</leafValues></_>
        <_>
          <internalNodes>
            0 -1 214 -1.5980894677340984e-003</internalNodes>
          <leafValues>
            2.7703672647476196e-001 -1.7548781633377075e-001</leafValues></_>
        <_>
          <internalNodes>
            0 -1 260 -9.1579055879265070e-004</internalNodes>
          <leafValues>
            3.5004651546478271e-001 -1.2944781780242920e-001</leafValues></_>
        <_>
          <internalNodes>
            0 -1 471 -2.8594862669706345e-003</internalNodes>
          <leafValues>
            3.6724269390106201e-001 -1.3545617461204529e-001</leafValues></_>
        <_>
          <internalNodes>
            0 -1 498 2.0526114385575056e-003</internalNodes>
          <leafValues>
            -1.8097172677516937e-001 3.1464931368827820e-001</leafValues></_>
        <_>
          <internalNodes>
            0 -1 125 -1.1274260468780994e-003</internalNodes>
          <leafValues>
            3.6643671989440918e-001 -1.0335064679384232e-001</leafValues></_>
        <_>
          <internalNodes>
            0 -1 259 -5.2654778119176626e-004</internalNodes>
          <leafValues>
            2.4855282902717590e-001 -1.7190636694431305e-001</leafValues></_>
        <_>
          <internalNodes>
            0 -1 484 2.7587842196226120e-003</internalNodes>
          <leafValues>
            -1.2980513274669647e-001 3.3847886323928833e-001</leafValues></_>
        <_>
          <internalNodes>
            0 -1 58 -2.6197053492069244e-002</internalNodes>
          <leafValues>
            3.2988667488098145e-001 -1.1889924854040146e-001</leafValues></_>
        <_>
          <internalNodes>
            0 -1 366 -1.7408246640115976e-003</internalNodes>
          <leafValues>
            2.7167406678199768e-001 -1.5026628971099854e-001</leafValues></_>
        <_>
          <internalNodes>
            0 -1 311 -1.5922740567475557e-003</internalNodes>
          <leafValues>
            2.1302512288093567e-001 -1.9073706865310669e-001</leafValues></_>
        <_>
          <internalNodes>
            0 -1 476 4.3359163100831211e-004</internalNodes>
          <leafValues>
            -1.6317710280418396e-001 2.2511142492294312e-001</leafValues></_>
        <_>
          <internalNodes>
            0 -1 390 -9.5773870125412941e-003</internalNodes>
          <leafValues>
            -6.2205958366394043e-001 6.1950482428073883e-002</leafValues></_>
        <_>
          <internalNodes>
            0 -1 34 -1.2236004695296288e-003</internalNodes>
          <leafValues>
            2.5433596968650818e-001 -1.4593756198883057e-001</leafValues></_>
        <_>
          <internalNodes>
            0 -1 20 -1.2082137167453766e-002</internalNodes>
          <leafValues>
            6.0706275701522827e-001 -6.4748905599117279e-002</leafValues></_>
        <_>
          <internalNodes>
            0 -1 120 -2.1389955654740334e-003</internalNodes>
          <leafValues>
            3.2873228192329407e-001 -1.0960815846920013e-001</leafValues></_>
        <_>
          <internalNodes>
            0 -1 176 -1.1874192208051682e-001</internalNodes>
          <leafValues>
            3.9865151047706604e-001 -7.8122645616531372e-002</leafValues></_>
        <_>
          <internalNodes>
            0 -1 225 -5.2218949422240257e-003</internalNodes>
          <leafValues>
            4.0070512890815735e-001 -8.2418411970138550e-002</leafValues></_>
        <_>
          <internalNodes>
            0 -1 490 -3.3424014691263437e-004</internalNodes>
          <leafValues>
            2.4476249516010284e-001 -1.5402118861675262e-001</leafValues></_>
        <_>
          <internalNodes>
            0 -1 363 9.9764950573444366e-003</internalNodes>
          <leafValues>
            8.0320537090301514e-002 -4.1476839780807495e-001</leafValues></_>
        <_>
          <internalNodes>
            0 -1 234 6.1441957950592041e-002</internalNodes>
          <leafValues>
            6.5631866455078125e-002 -4.8693475127220154e-001</leafValues></_>
        <_>
          <internalNodes>
            0 -1 449 -5.7433308102190495e-003</internalNodes>
          <leafValues>
            2.2981880605220795e-001 -1.4121118187904358e-001</leafValues></_>
        <_>
          <internalNodes>
            0 -1 35 1.7265104688704014e-003</internalNodes>
          <leafValues>
            -1.2229806929826736e-001 2.5986135005950928e-001</leafValues></_>
        <_>
          <internalNodes>
            0 -1 144 7.2970846667885780e-003</internalNodes>
          <leafValues>
            7.7255919575691223e-002 -4.3158209323883057e-001</leafValues></_>
        <_>
          <internalNodes>
            0 -1 253 -1.0931862052530050e-003</internalNodes>
          <leafValues>
            2.7078425884246826e-001 -1.2867778539657593e-001</leafValues></_>
        <_>
          <internalNodes>
            0 -1 380 -1.0953126475214958e-003</internalNodes>
          <leafValues>
            2.7829283475875854e-001 -1.1669589579105377e-001</leafValues></_>
        <_>
          <internalNodes>
            0 -1 448 -1.5355444047600031e-003</internalNodes>
          <leafValues>
            2.7723085880279541e-001 -1.1606261879205704e-001</leafValues></_>
        <_>
          <internalNodes>
            0 -1 458 -7.8464280813932419e-003</internalNodes>
          <leafValues>
            -5.4330700635910034e-001 6.4272314310073853e-002</leafValues></_>
        <_>
          <internalNodes>
            0 -1 558 1.5928761567920446e-003</internalNodes>
          <leafValues>
            -1.2981620430946350e-001 2.8435713052749634e-001</leafValues></_>
        <_>
          <internalNodes>
            0 -1 339 -2.1164264529943466e-002</internalNodes>
          <leafValues>
            -5.7674372196197510e-001 6.4008034765720367e-002</leafValues></_>
        <_>
          <internalNodes>
            0 -1 297 2.9160924255847931e-002</internalNodes>
          <leafValues>
            9.8235853016376495e-002 -3.1940945982933044e-001</leafValues></_>
        <_>
          <internalNodes>
            0 -1 113 -6.6760100889950991e-004</internalNodes>
          <leafValues>
            2.7572360634803772e-001 -1.2235605716705322e-001</leafValues></_></weakClassifiers></_>
    <!-- stage 2 -->
    <_>
      <maxWeakCount>45</maxWeakCount>
      <stageThreshold>-7.5462210178375244e-001</stageThreshold>
      <weakClassifiers>
        <_>
          <internalNodes>
            0 -1 275 3.0718846246600151e-003</internalNodes>
          <leafValues>
            1.6518847644329071e-001 6.7187500000000000e-001</leafValues></_>
        <_>
          <internalNodes>
            0 -1 69 6.9083217531442642e-003</internalNodes>
          <leafValues>
            -9.6507489681243896e-002 4.5623072981834412e-001</leafValues></_>
        <_>
          <internalNodes>
            0 -1 32 -1.4522970886901021e-003</internalNodes>
          <leafValues>
            2.3590722680091858e-001 -1.7681847512722015e-001</leafValues></_>
        <_>
          <internalNodes>
            0 -1 42 3.2304106280207634e-003</internalNodes>
          <leafValues>
            -1.1898824572563171e-001 2.9802876710891724e-001</leafValues></_>
        <_>
          <internalNodes>
            0 -1 164 -1.5380929689854383e-003</internalNodes>
          <leafValues>
            2.8662574291229248e-001 -1.1690087616443634e-001</leafValues></_>
        <_>
          <internalNodes>
            0 -1 164 1.8234220333397388e-003</internalNodes>
          <leafValues>
            -1.3409933447837830e-001 2.8002399206161499e-001</leafValues></_>
        <_>
          <internalNodes>
            0 -1 395 8.2651659613475204e-004</internalNodes>
          <leafValues>
            -1.8287509679794312e-001 2.0964087545871735e-001</leafValues></_>
        <_>
          <internalNodes>
            0 -1 151 -1.1177810374647379e-003</internalNodes>
          <leafValues>
            2.2415013611316681e-001 -1.5552651882171631e-001</leafValues></_>
        <_>
          <internalNodes>
            0 -1 441 -9.5127662643790245e-004</internalNodes>
          <leafValues>
            2.4957120418548584e-001 -1.3667795062065125e-001</leafValues></_>
        <_>
          <internalNodes>
            0 -1 240 6.2851542606949806e-003</internalNodes>
          <leafValues>
            -9.9632956087589264e-002 3.3916527032852173e-001</leafValues></_>
        <_>
          <internalNodes>
            0 -1 89 -2.1776635199785233e-002</internalNodes>
          <leafValues>
            -4.8659506440162659e-001 6.2367893755435944e-002</leafValues></_>
        <_>
          <internalNodes>
            0 -1 532 7.4294209480285645e-004</internalNodes>
          <leafValues>
            -1.1521912366151810e-001 2.7153894305229187e-001</leafValues></_>
        <_>
          <internalNodes>
            0 -1 63 2.9547458514571190e-002</internalNodes>
          <leafValues>
            -9.9779024720191956e-002 3.1838461756706238e-001</leafValues></_>
        <_>
          <internalNodes>
            0 -1 474 -6.9574345834553242e-003</internalNodes>
          <leafValues>
            2.6959306001663208e-001 -1.2240695953369141e-001</leafValues></_>
        <_>
          <internalNodes>
            0 -1 463 6.1553721316158772e-003</internalNodes>
          <leafValues>
            -1.3634158670902252e-001 2.4774648249149323e-001</leafValues></_>
        <_>
          <internalNodes>
            0 -1 509 6.0328086838126183e-003</internalNodes>
          <leafValues>
            -1.0431689769029617e-001 3.2078033685684204e-001</leafValues></_>
        <_>
          <internalNodes>
            0 -1 438 -6.9507239386439323e-003</internalNodes>
          <leafValues>
            -6.9381761550903320e-001 4.4897623360157013e-002</leafValues></_>
        <_>
          <internalNodes>
            0 -1 398 -2.0196693949401379e-003</internalNodes>
          <leafValues>
            2.3721939325332642e-001 -1.3479745388031006e-001</leafValues></_>
        <_>
          <internalNodes>
            0 -1 337 -2.5491207838058472e-002</internalNodes>
          <leafValues>
            -5.8877485990524292e-001 6.3929013907909393e-002</leafValues></_>
        <_>
          <internalNodes>
            0 -1 328 8.4466077387332916e-003</internalNodes>
          <leafValues>
            7.6109550893306732e-002 -4.3378490209579468e-001</leafValues></_>
        <_>
          <internalNodes>
            0 -1 402 1.0337101295590401e-002</internalNodes>
          <leafValues>
            5.5939342826604843e-002 -5.2995944023132324e-001</leafValues></_>
        <_>
          <internalNodes>
            0 -1 536 -1.0305555770173669e-003</internalNodes>
          <leafValues>
            3.2060438394546509e-001 -1.0445856302976608e-001</leafValues></_>
        <_>
          <internalNodes>
            0 -1 228 -1.0893393773585558e-003</internalNodes>
          <leafValues>
            2.6983770728111267e-001 -1.2238730490207672e-001</leafValues></_>
        <_>
          <internalNodes>
            0 -1 505 5.8773504570126534e-003</internalNodes>
          <leafValues>
            -8.5357286036014557e-002 3.3861547708511353e-001</leafValues></_>
        <_>
          <internalNodes>
            0 -1 334 -1.2117685750126839e-002</internalNodes>
          <leafValues>
            -4.5623242855072021e-001 6.0293357819318771e-002</leafValues></_>
        <_>
          <internalNodes>
            0 -1 106 -8.2459929399192333e-004</internalNodes>
          <leafValues>
            2.6146751642227173e-001 -1.0482979565858841e-001</leafValues></_>
        <_>
          <internalNodes>
            0 -1 268 -1.7226928612217307e-003</internalNodes>
          <leafValues>
            2.4608168005943298e-001 -1.0745483636856079e-001</leafValues></_>
        <_>
          <internalNodes>
            0 -1 6 1.3079724740236998e-003</internalNodes>
          <leafValues>
            -1.3367834687232971e-001 2.2885097563266754e-001</leafValues></_>
        <_>
          <internalNodes>
            0 -1 347 1.2444104999303818e-002</internalNodes>
          <leafValues>
            4.7014910727739334e-002 -6.9333106279373169e-001</leafValues></_>
        <_>
          <internalNodes>
            0 -1 307 2.3405067622661591e-003</internalNodes>
          <leafValues>
            -1.2966872751712799e-001 2.3947216570377350e-001</leafValues></_>
        <_>
          <internalNodes>
            0 -1 340 9.7215746063739061e-004</internalNodes>
          <leafValues>
            -1.6809052228927612e-001 1.9368937611579895e-001</leafValues></_>
        <_>
          <internalNodes>
            0 -1 185 -3.7446534261107445e-003</internalNodes>
          <leafValues>
            -7.9941576719284058e-001 3.6218255758285522e-002</leafValues></_>
        <_>
          <internalNodes>
            0 -1 86 1.3749379431828856e-003</internalNodes>
          <leafValues>
            -1.0969801247119904e-001 2.5730171799659729e-001</leafValues></_>
        <_>
          <internalNodes>
            0 -1 285 4.7511737793684006e-003</internalNodes>
          <leafValues>
            -1.3751587271690369e-001 2.0738182961940765e-001</leafValues></_>
        <_>
          <internalNodes>
            0 -1 146 1.9368767971172929e-003</internalNodes>
          <leafValues>
            -1.0253783315420151e-001 2.7733165025711060e-001</leafValues></_>
        <_>
          <internalNodes>
            0 -1 296 -1.0498554911464453e-003</internalNodes>
          <leafValues>
            1.9619034230709076e-001 -1.4523193240165710e-001</leafValues></_>
        <_>
          <internalNodes>
            0 -1 196 1.1627835221588612e-002</internalNodes>
          <leafValues>
            1.0662464797496796e-001 -2.5839886069297791e-001</leafValues></_>
        <_>
          <internalNodes>
            0 -1 308 -1.4703221619129181e-002</internalNodes>
          <leafValues>
            -4.2822045087814331e-001 6.0824714601039886e-002</leafValues></_>
        <_>
          <internalNodes>
            0 -1 261 -3.9673931896686554e-002</internalNodes>
          <leafValues>
            -3.8516429066658020e-001 6.4908243715763092e-002</leafValues></_>
        <_>
          <internalNodes>
            0 -1 248 -7.1387523785233498e-003</internalNodes>
          <leafValues>
            3.2847219705581665e-001 -8.2137741148471832e-002</leafValues></_>
        <_>
          <internalNodes>
            0 -1 200 -7.2822682559490204e-003</internalNodes>
          <leafValues>
            2.5904554128646851e-001 -9.3017414212226868e-002</leafValues></_>
        <_>
          <internalNodes>
            0 -1 444 2.2569554857909679e-003</internalNodes>
          <leafValues>
            -1.0599289089441299e-001 2.8289160132408142e-001</leafValues></_>
        <_>
          <internalNodes>
            0 -1 526 1.1642500758171082e-002</internalNodes>
          <leafValues>
            4.8654772341251373e-002 -6.0940217971801758e-001</leafValues></_>
        <_>
          <internalNodes>
            0 -1 254 -1.1892766691744328e-002</internalNodes>
          <leafValues>
            -4.2254236340522766e-001 5.4168321192264557e-002</leafValues></_>
        <_>
          <internalNodes>
            0 -1 322 6.1886916228104383e-005</internalNodes>
          <leafValues>
            1.3896207511425018e-001 -1.9848594069480896e-001</leafValues></_></weakClassifiers></_>
    <!-- stage 3 -->
    <_>
      <maxWeakCount>53</maxWeakCount>
      <stageThreshold>-6.1237066984176636e-001</stageThreshold>
      <weakClassifiers>
        <_>
          <internalNodes>
            0 -1 278 6.6250730305910110e-003</internalNodes>
          <leafValues>
            1.8282066285610199e-001 5.9877175092697144e-001</leafValues></_>
        <_>
          <internalNodes>
            0 -1 28 -1.3633149676024914e-002</internalNodes>
          <leafValues>
            3.6796256899833679e-001 -7.1355395019054413e-002</leafValues></_>
        <_>
          <internalNodes>
            0 -1 280 3.8246619515120983e-003</internalNodes>
          <leafValues>
            -1.5433868765830994e-001 2.7861326932907104e-001</leafValues></_>
        <_>
          <internalNodes>
            0 -1 202 -3.4276461228728294e-003</internalNodes>
          <leafValues>
            2.7500316500663757e-001 -1.4543399214744568e-001</leafValues></_>
        <_>
          <internalNodes>
            0 -1 5 -8.9023858308792114e-003</internalNodes>
          <leafValues>
            2.9737496376037598e-001 -1.1345456540584564e-001</leafValues></_>
        <_>
          <internalNodes>
            0 -1 441 -1.0261877905577421e-003</internalNodes>
          <leafValues>
            2.2227935492992401e-001 -1.3024471700191498e-001</leafValues></_>
        <_>
          <internalNodes>
            0 -1 269 -1.2574468564707786e-004</internalNodes>
          <leafValues>
            1.6892282664775848e-001 -1.8342293798923492e-001</leafValues></_>
        <_>
          <internalNodes>
            0 -1 288 -2.1490375511348248e-003</internalNodes>
          <leafValues>
            1.7733035981655121e-001 -1.5370923280715942e-001</leafValues></_>
        <_>
          <internalNodes>
            0 -1 200 -6.6736014559864998e-003</internalNodes>
          <leafValues>
            2.5835508108139038e-001 -9.8236955702304840e-002</leafValues></_>
        <_>
          <internalNodes>
            0 -1 349 2.3313673213124275e-002</internalNodes>
          <leafValues>
            8.7186925113201141e-002 -3.8312450051307678e-001</leafValues></_>
        <_>
          <internalNodes>
            0 -1 436 -7.9852424096316099e-004</internalNodes>
          <leafValues>
            2.2475203871726990e-001 -1.1948809027671814e-001</leafValues></_>
        <_>
          <internalNodes>
            0 -1 355 -5.2420096471905708e-003</internalNodes>
          <leafValues>
            -6.4387947320938110e-001 5.2079863846302032e-002</leafValues></_>
        <_>
          <internalNodes>
            0 -1 435 -8.5961550939828157e-004</internalNodes>
          <leafValues>
            1.8875166773796082e-001 -1.4989173412322998e-001</leafValues></_>
        <_>
          <internalNodes>
            0 -1 537 -5.8314361376687884e-004</internalNodes>
          <leafValues>
            1.9433984160423279e-001 -1.2229742854833603e-001</leafValues></_>
        <_>
          <internalNodes>
            0 -1 161 -3.2145373988896608e-003</internalNodes>
          <leafValues>
            -5.3510868549346924e-001 4.4467862695455551e-002</leafValues></_>
        <_>
          <internalNodes>
            0 -1 132 -8.8569857180118561e-003</internalNodes>
          <leafValues>
            1.8771581351757050e-001 -1.2925565242767334e-001</leafValues></_>
        <_>
          <internalNodes>
            0 -1 40 3.1342700822278857e-004</internalNodes>
          <leafValues>
            -1.4405801892280579e-001 1.7632244527339935e-001</leafValues></_>
        <_>
          <internalNodes>
            0 -1 189 -1.6164083499461412e-003</internalNodes>
          <leafValues>
            2.9930156469345093e-001 -9.7934000194072723e-002</leafValues></_>
        <_>
          <internalNodes>
            0 -1 191 2.7863269206136465e-003</internalNodes>
          <leafValues>
            -1.0473115742206573e-001 2.9286825656890869e-001</leafValues></_>
        <_>
          <internalNodes>
            0 -1 57 -1.3419896364212036e-001</internalNodes>
          <leafValues>
            4.9849018454551697e-001 -5.4549898952245712e-002</leafValues></_>
        <_>
          <internalNodes>
            0 -1 82 -7.3971943929791451e-003</internalNodes>
          <leafValues>
            3.2479828596115112e-001 -7.1797318756580353e-002</leafValues></_>
        <_>
          <internalNodes>
            0 -1 454 -1.3279916020110250e-003</internalNodes>
          <leafValues>
            2.0549719035625458e-001 -1.1750862002372742e-001</leafValues></_>
        <_>
          <internalNodes>
            0 -1 7 3.9965752512216568e-003</internalNodes>
          <leafValues>
            -1.0343705862760544e-001 2.3148563504219055e-001</leafValues></_>
        <_>
          <internalNodes>
            0 -1 219 -2.2627799771726131e-003</internalNodes>
          <leafValues>
            -4.0943300724029541e-001 6.1916936188936234e-002</leafValues></_>
        <_>
          <internalNodes>
            0 -1 417 -3.6372882314026356e-003</internalNodes>
          <leafValues>
            -6.3363939523696899e-001 3.5128038376569748e-002</leafValues></_>
        <_>
          <internalNodes>
            0 -1 302 -1.9230730831623077e-002</internalNodes>
          <leafValues>
            -8.1685465574264526e-001 2.5614693760871887e-002</leafValues></_>
        <_>
          <internalNodes>
            0 -1 320 -4.7637452371418476e-004</internalNodes>
          <leafValues>
            1.7116953432559967e-001 -1.3715533912181854e-001</leafValues></_>
        <_>
          <internalNodes>
            0 -1 316 4.7528110444545746e-003</internalNodes>
          <leafValues>
            5.0726763904094696e-002 -4.4589683413505554e-001</leafValues></_>
        <_>
          <internalNodes>
            0 -1 410 -1.1738170869648457e-003</internalNodes>
          <leafValues>
            2.3526500165462494e-001 -1.0422933101654053e-001</leafValues></_>
        <_>
          <internalNodes>
            0 -1 425 -7.7296310337260365e-004</internalNodes>
          <leafValues>
            2.0736674964427948e-001 -1.1366246640682220e-001</leafValues></_>
        <_>
          <internalNodes>
            0 -1 213 -2.7275527827441692e-003</internalNodes>
          <leafValues>
            1.8384465575218201e-001 -1.2921588122844696e-001</leafValues></_>
        <_>
          <internalNodes>
            0 -1 422 -1.6095496248453856e-003</internalNodes>
          <leafValues>
            1.9838592410087585e-001 -1.1177823692560196e-001</leafValues></_>
        <_>
          <internalNodes>
            0 -1 373 -1.5051061054691672e-003</internalNodes>
          <leafValues>
            1.7382034659385681e-001 -1.2909708917140961e-001</leafValues></_>
        <_>
          <internalNodes>
            0 -1 546 -2.5697509408928454e-004</internalNodes>
          <leafValues>
            1.9383262097835541e-001 -1.2237820029258728e-001</leafValues></_>
        <_>
          <internalNodes>
            0 -1 343 -6.5284730226267129e-005</internalNodes>
          <leafValues>
            1.3353200256824493e-001 -1.6950382292270660e-001</leafValues></_>
        <_>
          <internalNodes>
            0 -1 343 -4.5455121435225010e-003</internalNodes>
          <leafValues>
            -5.3766560554504395e-001 5.5855505168437958e-002</leafValues></_>
        <_>
          <internalNodes>
            0 -1 391 2.4930272251367569e-002</internalNodes>
          <leafValues>
            -8.9891180396080017e-002 2.6448041200637817e-001</leafValues></_>
        <_>
          <internalNodes>
            0 -1 408 -6.0991230420768261e-003</internalNodes>
          <leafValues>
            -5.1271498203277588e-001 4.9084693193435669e-002</leafValues></_>
        <_>
          <internalNodes>
            0 -1 158 -1.1265550274401903e-003</internalNodes>
          <leafValues>
            1.9460055232048035e-001 -1.1399377882480621e-001</leafValues></_>
        <_>
          <internalNodes>
            0 -1 409 -1.5865512192249298e-002</internalNodes>
          <leafValues>
            4.3257370591163635e-001 -4.9916345626115799e-002</leafValues></_>
        <_>
          <internalNodes>
            0 -1 346 -1.1546803638339043e-002</internalNodes>
          <leafValues>
            -7.5304359197616577e-001 3.4354954957962036e-002</leafValues></_>
        <_>
          <internalNodes>
            0 -1 503 2.3873249068856239e-002</internalNodes>
          <leafValues>
            -5.3902998566627502e-002 4.7823998332023621e-001</leafValues></_>
        <_>
          <internalNodes>
            0 -1 413 -6.2041692435741425e-003</internalNodes>
          <leafValues>
            -3.3687892556190491e-001 7.7857777476310730e-002</leafValues></_>
        <_>
          <internalNodes>
            0 -1 180 -1.6545511782169342e-002</internalNodes>
          <leafValues>
            -3.5111925005912781e-001 5.9329099953174591e-002</leafValues></_>
        <_>
          <internalNodes>
            0 -1 242 -5.1398656796664000e-004</internalNodes>
          <leafValues>
            2.1678045392036438e-001 -1.1819034069776535e-001</leafValues></_>
        <_>
          <internalNodes>
            0 -1 283 -5.6937960907816887e-003</internalNodes>
          <leafValues>
            -5.6161797046661377e-001 3.7551280111074448e-002</leafValues></_>
        <_>
          <internalNodes>
            0 -1 264 -3.6476640962064266e-003</internalNodes>
          <leafValues>
            2.7254247665405273e-001 -8.6756393313407898e-002</leafValues></_>
        <_>
          <internalNodes>
            0 -1 305 3.3103027381002903e-003</internalNodes>
          <leafValues>
            -9.4669923186302185e-002 2.2805538773536682e-001</leafValues></_>
        <_>
          <internalNodes>
            0 -1 129 2.2912558913230896e-001</internalNodes>
          <leafValues>
            -5.5175032466650009e-002 3.8925263285636902e-001</leafValues></_>
        <_>
          <internalNodes>
            0 -1 218 3.5189703106880188e-002</internalNodes>
          <leafValues>
            3.9722122251987457e-002 -7.0634955167770386e-001</leafValues></_>
        <_>
          <internalNodes>
            0 -1 431 4.6946834772825241e-003</internalNodes>
          <leafValues>
            -7.5136393308639526e-002 3.1432676315307617e-001</leafValues></_>
        <_>
          <internalNodes>
            0 -1 215 5.7323705404996872e-002</internalNodes>
          <leafValues>
            4.2595338076353073e-002 -5.8576565980911255e-001</leafValues></_>
        <_>
          <internalNodes>
            0 -1 429 -1.0075592435896397e-003</internalNodes>
          <leafValues>
            1.8425564467906952e-001 -1.2706114351749420e-001</leafValues></_></weakClassifiers></_>
    <!-- stage 4 -->
    <_>
      <maxWeakCount>72</maxWeakCount>
      <stageThreshold>-6.4827847480773926e-001</stageThreshold>
      <weakClassifiers>
        <_>
          <internalNodes>
            0 -1 79 -3.8804707583039999e-003</internalNodes>
          <leafValues>
            5.8208954334259033e-001 2.2784809768199921e-001</leafValues></_>
        <_>
          <internalNodes>
            0 -1 23 1.0110557079315186e-002</internalNodes>
          <leafValues>
            -8.4548741579055786e-002 3.0293688178062439e-001</leafValues></_>
        <_>
          <internalNodes>
            0 -1 314 7.2295307181775570e-003</internalNodes>
          <leafValues>
            -2.3904703557491302e-003 -5.4732042551040649e-001</leafValues></_>
        <_>
          <internalNodes>
            0 -1 80 1.0443960782140493e-003</internalNodes>
          <leafValues>
            -1.1923544853925705e-001 1.9188666343688965e-001</leafValues></_>
        <_>
          <internalNodes>
            0 -1 325 8.9603386819362640e-002</internalNodes>
          <leafValues>
            -3.8291916251182556e-002 3.2193440198898315e-001</leafValues></_>
        <_>
          <internalNodes>
            0 -1 188 -5.1764445379376411e-003</internalNodes>
          <leafValues>
            2.4395452439785004e-001 -1.2682399153709412e-001</leafValues></_>
        <_>
          <internalNodes>
            0 -1 187 6.6141439601778984e-003</internalNodes>
          <leafValues>
            -7.9298757016658783e-002 3.4117853641510010e-001</leafValues></_>
        <_>
          <internalNodes>
            0 -1 396 1.6235649818554521e-003</internalNodes>
          <leafValues>
            -1.3390518724918365e-001 1.8465176224708557e-001</leafValues></_>
        <_>
          <internalNodes>
            0 -1 468 -9.0881688520312309e-003</internalNodes>
          <leafValues>
            -5.3970992565155029e-001 4.1900638490915298e-002</leafValues></_>
        <_>
          <internalNodes>
            0 -1 136 -4.1904556564986706e-004</internalNodes>
          <leafValues>
            1.7464599013328552e-001 -1.3253876566886902e-001</leafValues></_>
        <_>
          <internalNodes>
            0 -1 433 -7.7652493491768837e-003</internalNodes>
          <leafValues>
            -6.4302527904510498e-001 3.1752835959196091e-002</leafValues></_>
        <_>
          <internalNodes>
            0 -1 233 2.5408655405044556e-002</internalNodes>
          <leafValues>
            8.0703340470790863e-002 -2.7859532833099365e-001</leafValues></_>
        <_>
          <internalNodes>
            0 -1 442 -2.8900660108774900e-003</internalNodes>
          <leafValues>
            1.9026495516300201e-001 -1.0622163861989975e-001</leafValues></_>
        <_>
          <internalNodes>
            0 -1 88 7.8594535589218140e-003</internalNodes>
          <leafValues>
            6.0220930725336075e-002 -3.8798388838768005e-001</leafValues></_>
        <_>
          <internalNodes>
            0 -1 137 -1.3169881422072649e-003</internalNodes>
          <leafValues>
            1.4842164516448975e-001 -1.3585786521434784e-001</leafValues></_>
        <_>
          <internalNodes>
            0 -1 87 -5.9671525377780199e-004</internalNodes>
          <leafValues>
            1.8688049912452698e-001 -1.4053685963153839e-001</leafValues></_>
        <_>
          <internalNodes>
            0 -1 381 1.1486809700727463e-002</internalNodes>
          <leafValues>
            5.1278166472911835e-002 -4.1618427634239197e-001</leafValues></_>
        <_>
          <internalNodes>
            0 -1 319 9.8582692444324493e-003</internalNodes>
          <leafValues>
            -6.0690760612487793e-002 3.6731496453285217e-001</leafValues></_>
        <_>
          <internalNodes>
            0 -1 365 -9.8592101130634546e-004</internalNodes>
          <leafValues>
            2.3499187827110291e-001 -1.2735211849212646e-001</leafValues></_>
        <_>
          <internalNodes>
            0 -1 93 -6.4180046319961548e-003</internalNodes>
          <leafValues>
            -3.7761217355728149e-001 5.7714678347110748e-002</leafValues></_>
        <_>
          <internalNodes>
            0 -1 174 -1.0522455908358097e-002</internalNodes>
          <leafValues>
            2.7688565850257874e-001 -7.2793863713741302e-002</leafValues></_>
        <_>
          <internalNodes>
            0 -1 291 1.7071771435439587e-003</internalNodes>
          <leafValues>
            -9.1555364429950714e-002 2.3137675225734711e-001</leafValues></_>
        <_>
          <internalNodes>
            0 -1 333 -6.2398478388786316e-002</internalNodes>
          <leafValues>
            -7.6232361793518066e-001 2.9858149588108063e-002</leafValues></_>
        <_>
          <internalNodes>
            0 -1 37 6.4755004132166505e-004</internalNodes>
          <leafValues>
            -1.4358083903789520e-001 1.4254266023635864e-001</leafValues></_>
        <_>
          <internalNodes>
            0 -1 229 -4.6042976900935173e-003</internalNodes>
          <leafValues>
            -6.8109542131423950e-001 2.7383407577872276e-002</leafValues></_>
        <_>
          <internalNodes>
            0 -1 128 6.9186463952064514e-004</internalNodes>
          <leafValues>
            -1.2905408442020416e-001 1.6327556967735291e-001</leafValues></_>
        <_>
          <internalNodes>
            0 -1 156 -8.7511382298544049e-004</internalNodes>
          <leafValues>
            1.7819716036319733e-001 -1.1936309188604355e-001</leafValues></_>
        <_>
          <internalNodes>
            0 -1 397 1.6823549522086978e-003</internalNodes>
          <leafValues>
            -8.1326700747013092e-002 2.5382426381111145e-001</leafValues></_>
        <_>
          <internalNodes>
            0 -1 348 -2.5423849001526833e-003</internalNodes>
          <leafValues>
            2.3009940981864929e-001 -1.2732397019863129e-001</leafValues></_>
        <_>
          <internalNodes>
            0 -1 74 -3.9545290172100067e-002</internalNodes>
          <leafValues>
            -6.8119508028030396e-001 3.4232664853334427e-002</leafValues></_>
        <_>
          <internalNodes>
            0 -1 195 -2.1577267907559872e-003</internalNodes>
          <leafValues>
            2.3556879162788391e-001 -9.4360508024692535e-002</leafValues></_>
        <_>
          <internalNodes>
            0 -1 238 3.7972142454236746e-003</internalNodes>
          <leafValues>
            4.9916997551918030e-002 -4.2934426665306091e-001</leafValues></_>
        <_>
          <internalNodes>
            0 -1 467 -3.7951099220663309e-003</internalNodes>
          <leafValues>
            -4.6275418996810913e-001 4.3433651328086853e-002</leafValues></_>
        <_>
          <internalNodes>
            0 -1 545 -4.0244907140731812e-003</internalNodes>
          <leafValues>
            2.0145797729492188e-001 -1.0031450539827347e-001</leafValues></_>
        <_>
          <internalNodes>
            0 -1 166 -1.1308666318655014e-002</internalNodes>
          <leafValues>
            -5.5379915237426758e-001 4.1947402060031891e-002</leafValues></_>
        <_>
          <internalNodes>
            0 -1 238 -3.6861123517155647e-003</internalNodes>
          <leafValues>
            -4.7898054122924805e-001 4.2351663112640381e-002</leafValues></_>
        <_>
          <internalNodes>
            0 -1 46 -1.0375307174399495e-003</internalNodes>
          <leafValues>
            2.3889051377773285e-001 -9.5521904528141022e-002</leafValues></_>
        <_>
          <internalNodes>
            0 -1 226 -2.8192361816763878e-002</internalNodes>
          <leafValues>
            -5.2491211891174316e-001 4.5610077679157257e-002</leafValues></_>
        <_>
          <internalNodes>
            0 -1 271 -3.6666560918092728e-003</internalNodes>
          <leafValues>
            -2.1259772777557373e-001 1.0670396685600281e-001</leafValues></_>
        <_>
          <internalNodes>
            0 -1 134 6.0114059597253799e-003</internalNodes>
          <leafValues>
            -7.0253305137157440e-002 3.1500437855720520e-001</leafValues></_>
        <_>
          <internalNodes>
            0 -1 239 -3.5712970420718193e-003</internalNodes>
          <leafValues>
            1.9663344323635101e-001 -1.0651332139968872e-001</leafValues></_>
        <_>
          <internalNodes>
            0 -1 369 3.7570479325950146e-003</internalNodes>
          <leafValues>
            -9.4782195985317230e-002 2.3853908479213715e-001</leafValues></_>
        <_>
          <internalNodes>
            0 -1 535 1.3467470183968544e-002</internalNodes>
          <leafValues>
            3.0318647623062134e-002 -7.4152803421020508e-001</leafValues></_>
        <_>
          <internalNodes>
            0 -1 460 1.2747952714562416e-003</internalNodes>
          <leafValues>
            -1.0767994821071625e-001 1.8556901812553406e-001</leafValues></_>
        <_>
          <internalNodes>
            0 -1 416 -3.6966945044696331e-003</internalNodes>
          <leafValues>
            2.1868014335632324e-001 -8.9997664093971252e-002</leafValues></_>
        <_>
          <internalNodes>
            0 -1 51 3.7841382436454296e-003</internalNodes>
          <leafValues>
            6.6000491380691528e-002 -3.4842869639396667e-001</leafValues></_>
        <_>
          <internalNodes>
            0 -1 198 4.6467073261737823e-003</internalNodes>
          <leafValues>
            2.3733617737889290e-002 -7.9115200042724609e-001</leafValues></_>
        <_>
          <internalNodes>
            0 -1 246 -5.3939968347549438e-002</internalNodes>
          <leafValues>
            -7.2758859395980835e-001 2.2414006292819977e-002</leafValues></_>
        <_>
          <internalNodes>
            0 -1 159 6.7020056303590536e-004</internalNodes>
          <leafValues>
            -1.3853815197944641e-001 1.5734136104583740e-001</leafValues></_>
        <_>
          <internalNodes>
            0 -1 507 -8.4379129111766815e-004</internalNodes>
          <leafValues>
            1.9774128496646881e-001 -1.0243297368288040e-001</leafValues></_>
        <_>
          <internalNodes>
            0 -1 116 1.3035552110522985e-003</internalNodes>
          <leafValues>
            -6.9184213876724243e-002 2.7068108320236206e-001</leafValues></_>
        <_>
          <internalNodes>
            0 -1 350 3.1870968639850616e-002</internalNodes>
          <leafValues>
            -7.7181197702884674e-002 2.6174512505531311e-001</leafValues></_>
        <_>
          <internalNodes>
            0 -1 462 -6.0300072655081749e-003</internalNodes>
          <leafValues>
            2.2086919844150543e-001 -1.2172123044729233e-001</leafValues></_>
        <_>
          <internalNodes>
            0 -1 392 -2.0959721878170967e-003</internalNodes>
          <leafValues>
            -3.5030892491340637e-001 6.5176777541637421e-002</leafValues></_>
        <_>
          <internalNodes>
            0 -1 554 -3.8560647226404399e-005</internalNodes>
          <leafValues>
            1.4886264503002167e-001 -1.4131864905357361e-001</leafValues></_>
        <_>
          <internalNodes>
            0 -1 529 -4.2458558455109596e-003</internalNodes>
          <leafValues>
            2.2375549376010895e-001 -9.0114161372184753e-002</leafValues></_>
        <_>
          <internalNodes>
            0 -1 207 9.6931815147399902e-002</internalNodes>
          <leafValues>
            8.6457140743732452e-002 -2.4989904463291168e-001</leafValues></_>
        <_>
          <internalNodes>
            0 -1 148 2.1725152619183064e-003</internalNodes>
          <leafValues>
            4.4905584305524826e-002 -3.8603222370147705e-001</leafValues></_>
        <_>
          <internalNodes>
            0 -1 100 -3.3338442444801331e-002</internalNodes>
          <leafValues>
            5.2069133520126343e-001 -3.6546021699905396e-002</leafValues></_>
        <_>
          <internalNodes>
            0 -1 201 -8.1154465442523360e-004</internalNodes>
          <leafValues>
            1.8367493152618408e-001 -9.6429675817489624e-002</leafValues></_>
        <_>
          <internalNodes>
            0 -1 426 -6.1019789427518845e-003</internalNodes>
          <leafValues>
            -7.2948122024536133e-001 2.6321243494749069e-002</leafValues></_>
        <_>
          <internalNodes>
            0 -1 96 -1.0162293910980225e-001</internalNodes>
          <leafValues>
            5.1658558845520020e-001 -4.1364353150129318e-002</leafValues></_>
        <_>
          <internalNodes>
            0 -1 178 3.4891605377197266e-002</internalNodes>
          <leafValues>
            4.5224938541650772e-002 -4.7532695531845093e-001</leafValues></_>
        <_>
          <internalNodes>
            0 -1 199 -3.7371409125626087e-003</internalNodes>
          <leafValues>
            2.2587518393993378e-001 -8.6961179971694946e-002</leafValues></_>
        <_>
          <internalNodes>
            0 -1 313 1.3905777595937252e-003</internalNodes>
          <leafValues>
            7.8885689377784729e-002 -2.5515013933181763e-001</leafValues></_>
        <_>
          <internalNodes>
            0 -1 262 -2.9000677168369293e-003</internalNodes>
          <leafValues>
            2.2653810679912567e-001 -8.2472458481788635e-002</leafValues></_>
        <_>
          <internalNodes>
            0 -1 301 5.6116441264748573e-003</internalNodes>
          <leafValues>
            5.1518402993679047e-002 -4.2504152655601501e-001</leafValues></_>
        <_>
          <internalNodes>
            0 -1 266 3.2806608360260725e-003</internalNodes>
          <leafValues>
            -6.8524412810802460e-002 3.5112652182579041e-001</leafValues></_>
        <_>
          <internalNodes>
            0 -1 494 5.2044666372239590e-003</internalNodes>
          <leafValues>
            6.7604191601276398e-002 -3.1338003277778625e-001</leafValues></_>
        <_>
          <internalNodes>
            0 -1 432 2.0768495742231607e-003</internalNodes>
          <leafValues>
            -8.5594974458217621e-002 2.4764028191566467e-001</leafValues></_>
        <_>
          <internalNodes>
            0 -1 11 -1.4137636870145798e-002</internalNodes>
          <leafValues>
            -2.1514691412448883e-001 9.8231822252273560e-002</leafValues></_>
        <_>
          <internalNodes>
            0 -1 14 1.3088444247841835e-003</internalNodes>
          <leafValues>
            6.4525559544563293e-002 -3.2146054506301880e-001</leafValues></_></weakClassifiers></_>
    <!-- stage 5 -->
    <_>
      <maxWeakCount>66</maxWeakCount>
      <stageThreshold>-6.5244543552398682e-001</stageThreshold>
      <weakClassifiers>
        <_>
          <internalNodes>
            0 -1 275 2.7727964334189892e-003</internalNodes>
          <leafValues>
            1.8849089741706848e-001 5.8074223995208740e-001</leafValues></_>
        <_>
          <internalNodes>
            0 -1 440 1.9567947834730148e-002</internalNodes>
          <leafValues>
            -7.1503803133964539e-002 3.7024345993995667e-001</leafValues></_>
        <_>
          <internalNodes>
            0 -1 45 -1.4203409664332867e-002</internalNodes>
          <leafValues>
            3.8006731867790222e-001 -7.4694871902465820e-002</leafValues></_>
        <_>
          <internalNodes>
            0 -1 464 -1.0878145694732666e-003</internalNodes>
          <leafValues>
            2.2995081543922424e-001 -1.8335634469985962e-001</leafValues></_>
        <_>
          <internalNodes>
            0 -1 468 -6.6388710401952267e-003</internalNodes>
          <leafValues>
            -4.4816288352012634e-001 7.9734608530998230e-002</leafValues></_>
        <_>
          <internalNodes>
            0 -1 139 4.2663216590881348e-003</internalNodes>
          <leafValues>
            1.0251358896493912e-001 -2.4269691109657288e-001</leafValues></_>
        <_>
          <internalNodes>
            0 -1 542 1.2276771303731948e-004</internalNodes>
          <leafValues>
            -1.4481127262115479e-001 1.6956780850887299e-001</leafValues></_>
        <_>
          <internalNodes>
            0 -1 186 6.7114830017089844e-003</internalNodes>
          <leafValues>
            3.4136570990085602e-002 -6.9771999120712280e-001</leafValues></_>
        <_>
          <internalNodes>
            0 -1 519 1.4938134700059891e-002</internalNodes>
          <leafValues>
            8.8964648544788361e-002 -2.8402340412139893e-001</leafValues></_>
        <_>
          <internalNodes>
            0 -1 345 -3.1742902938276529e-003</internalNodes>
          <leafValues>
            -3.3896866440773010e-001 7.1990102529525757e-002</leafValues></_>
        <_>
          <internalNodes>
            0 -1 47 -4.4367485679686069e-003</internalNodes>
          <leafValues>
            -3.6916434764862061e-001 6.4869731664657593e-002</leafValues></_>
        <_>
          <internalNodes>
            0 -1 81 -7.2759278118610382e-003</internalNodes>
          <leafValues>
            -5.3973203897476196e-001 4.2742382735013962e-002</leafValues></_>
        <_>
          <internalNodes>
            0 -1 265 1.0694314260035753e-003</internalNodes>
          <leafValues>
            -1.0720457136631012e-001 2.3644034564495087e-001</leafValues></_>
        <_>
          <internalNodes>
            0 -1 504 -7.2672744281589985e-003</internalNodes>
          <leafValues>
            2.5037604570388794e-001 -8.3903558552265167e-002</leafValues></_>
        <_>
          <internalNodes>
            0 -1 91 -1.6867622733116150e-002</internalNodes>
          <leafValues>
            4.1362273693084717e-001 -5.2659027278423309e-002</leafValues></_>
        <_>
          <internalNodes>
            0 -1 26 3.5172082483768463e-002</internalNodes>
          <leafValues>
            -3.8937501609325409e-002 5.9226715564727783e-001</leafValues></_>
        <_>
          <internalNodes>
            0 -1 109 -6.5563735552132130e-003</internalNodes>
          <leafValues>
            1.4856608211994171e-001 -1.4551390707492828e-001</leafValues></_>
        <_>
          <internalNodes>
            0 -1 351 4.7496426850557327e-003</internalNodes>
          <leafValues>
            2.3594001308083534e-002 -9.2600178718566895e-001</leafValues></_>
        <_>
          <internalNodes>
            0 -1 496 2.9392510652542114e-002</internalNodes>
          <leafValues>
            -7.5319938361644745e-002 3.0771282315254211e-001</leafValues></_>
        <_>
          <internalNodes>
            0 -1 231 -1.9668878987431526e-002</internalNodes>
          <leafValues>
            -4.0454459190368652e-001 5.7067729532718658e-002</leafValues></_>
        <_>
          <internalNodes>
            0 -1 64 -3.4530274569988251e-004</internalNodes>
          <leafValues>
            1.6584376990795135e-001 -1.3283577561378479e-001</leafValues></_>
        <_>
          <internalNodes>
            0 -1 326 -4.0303692221641541e-003</internalNodes>
          <leafValues>
            -6.3262939453125000e-001 3.1899429857730865e-002</leafValues></_>
        <_>
          <internalNodes>
            0 -1 175 1.8814474344253540e-002</internalNodes>
          <leafValues>
            -5.5193908512592316e-002 4.1613715887069702e-001</leafValues></_>
        <_>
          <internalNodes>
            0 -1 360 -1.0802808683365583e-003</internalNodes>
          <leafValues>
            1.8977962434291840e-001 -1.1164905875921249e-001</leafValues></_>
        <_>
          <internalNodes>
            0 -1 359 1.2357986997812986e-003</internalNodes>
          <leafValues>
            -9.9474713206291199e-002 2.4514392018318176e-001</leafValues></_>
        <_>
          <internalNodes>
            0 -1 101 -2.9780617915093899e-003</internalNodes>
          <leafValues>
            1.4330554008483887e-001 -1.4572975039482117e-001</leafValues></_>
        <_>
          <internalNodes>
            0 -1 119 1.1344114318490028e-003</internalNodes>
          <leafValues>
            -7.5676701962947845e-002 2.6881405711174011e-001</leafValues></_>
        <_>
          <internalNodes>
            0 -1 394 -3.9955698885023594e-003</internalNodes>
          <leafValues>
            -3.6959815025329590e-001 5.7557255029678345e-002</leafValues></_>
        <_>
          <internalNodes>
            0 -1 294 -7.6212314888834953e-004</internalNodes>
          <leafValues>
            1.8840889632701874e-001 -1.1303911358118057e-001</leafValues></_>
        <_>
          <internalNodes>
            0 -1 255 1.5238530468195677e-003</internalNodes>
          <leafValues>
            -1.0423802584409714e-001 2.0524019002914429e-001</leafValues></_>
        <_>
          <internalNodes>
            0 -1 252 -1.5232609584927559e-002</internalNodes>
          <leafValues>
            -8.1378948688507080e-001 2.4879135191440582e-002</leafValues></_>
        <_>
          <internalNodes>
            0 -1 126 4.0714314673095942e-004</internalNodes>
          <leafValues>
            -1.1600297689437866e-001 1.7228747904300690e-001</leafValues></_>
        <_>
          <internalNodes>
            0 -1 102 3.3343337476253510e-002</internalNodes>
          <leafValues>
            9.4477459788322449e-002 -2.4493305385112762e-001</leafValues></_>
        <_>
          <internalNodes>
            0 -1 461 -3.2950057648122311e-003</internalNodes>
          <leafValues>
            2.3262682557106018e-001 -8.3211593329906464e-002</leafValues></_>
        <_>
          <internalNodes>
            0 -1 283 -7.4468122329562902e-004</internalNodes>
          <leafValues>
            1.8696597218513489e-001 -1.1383130401372910e-001</leafValues></_>
        <_>
          <internalNodes>
            0 -1 168 3.2011875882744789e-003</internalNodes>
          <leafValues>
            -8.1570804119110107e-002 2.7805575728416443e-001</leafValues></_>
        <_>
          <internalNodes>
            0 -1 303 -3.8169778883457184e-002</internalNodes>
          <leafValues>
            -6.1176776885986328e-001 3.5699401050806046e-002</leafValues></_>
        <_>
          <internalNodes>
            0 -1 121 2.3223021999001503e-002</internalNodes>
          <leafValues>
            3.8363624364137650e-002 -5.2224075794219971e-001</leafValues></_>
        <_>
          <internalNodes>
            0 -1 364 1.8692244775593281e-003</internalNodes>
          <leafValues>
            8.5489034652709961e-002 -2.5267761945724487e-001</leafValues></_>
        <_>
          <internalNodes>
            0 -1 418 -3.5399920307099819e-003</internalNodes>
          <leafValues>
            -6.2048012018203735e-001 3.3306725323200226e-002</leafValues></_>
        <_>
          <internalNodes>
            0 -1 155 3.7245341809466481e-004</internalNodes>
          <leafValues>
            -1.0872835665941238e-001 1.8646442890167236e-001</leafValues></_>
        <_>
          <internalNodes>
            0 -1 1 1.5821045963093638e-004</internalNodes>
          <leafValues>
            1.1731023341417313e-001 -1.6772413253784180e-001</leafValues></_>
        <_>
          <internalNodes>
            0 -1 193 -5.5552432313561440e-003</internalNodes>
          <leafValues>
            2.5860804319381714e-001 -7.7899940311908722e-002</leafValues></_>
        <_>
          <internalNodes>
            0 -1 185 -3.3886206801980734e-003</internalNodes>
          <leafValues>
            -6.1832982301712036e-001 3.5102590918540955e-002</leafValues></_>
        <_>
          <internalNodes>
            0 -1 36 3.9455955848097801e-003</internalNodes>
          <leafValues>
            -8.7645463645458221e-002 2.3261646926403046e-001</leafValues></_>
        <_>
          <internalNodes>
            0 -1 211 -5.7913491036742926e-004</internalNodes>
          <leafValues>
            1.9408167898654938e-001 -1.1705633997917175e-001</leafValues></_>
        <_>
          <internalNodes>
            0 -1 210 1.1621504090726376e-003</internalNodes>
          <leafValues>
            -7.5377792119979858e-002 2.5921598076820374e-001</leafValues></_>
        <_>
          <internalNodes>
            0 -1 53 1.5424185991287231e-001</internalNodes>
          <leafValues>
            -2.1936215460300446e-002 8.6721998453140259e-001</leafValues></_>
        <_>
          <internalNodes>
            0 -1 127 -1.8354015424847603e-002</internalNodes>
          <leafValues>
            4.3536216020584106e-001 -4.1565749794244766e-002</leafValues></_>
        <_>
          <internalNodes>
            0 -1 514 2.5665602879598737e-004</internalNodes>
          <leafValues>
            -1.2151139229536057e-001 1.7694959044456482e-001</leafValues></_>
        <_>
          <internalNodes>
            0 -1 205 1.8063227180391550e-003</internalNodes>
          <leafValues>
            7.4232868850231171e-002 -2.8977820277214050e-001</leafValues></_>
        <_>
          <internalNodes>
            0 -1 177 -2.3736258968710899e-002</internalNodes>
          <leafValues>
            2.6898080110549927e-001 -8.8553652167320251e-002</leafValues></_>
        <_>
          <internalNodes>
            0 -1 324 -2.8235517442226410e-002</internalNodes>
          <leafValues>
            -3.6589959263801575e-001 7.0697531104087830e-002</leafValues></_>
        <_>
          <internalNodes>
            0 -1 117 -5.5530443787574768e-003</internalNodes>
          <leafValues>
            2.3468640446662903e-001 -1.0028699040412903e-001</leafValues></_>
        <_>
          <internalNodes>
            0 -1 338 -7.3044421151280403e-003</internalNodes>
          <leafValues>
            -4.0475162863731384e-001 6.0149643570184708e-002</leafValues></_>
        <_>
          <internalNodes>
            0 -1 287 -1.1024739360436797e-003</internalNodes>
          <leafValues>
            1.8557424843311310e-001 -1.1739929020404816e-001</leafValues></_>
        <_>
          <internalNodes>
            0 -1 257 -1.2279462069272995e-002</internalNodes>
          <leafValues>
            -5.5333590507507324e-001 3.6598987877368927e-002</leafValues></_>
        <_>
          <internalNodes>
            0 -1 384 -7.8255881089717150e-004</internalNodes>
          <leafValues>
            1.8754118680953979e-001 -1.0852519422769547e-001</leafValues></_>
        <_>
          <internalNodes>
            0 -1 389 -5.7360378559678793e-004</internalNodes>
          <leafValues>
            2.0909415185451508e-001 -1.2064897269010544e-001</leafValues></_>
        <_>
          <internalNodes>
            0 -1 299 -1.3401322066783905e-002</internalNodes>
          <leafValues>
            -5.3463310003280640e-001 3.9065562188625336e-002</leafValues></_>
        <_>
          <internalNodes>
            0 -1 235 -3.8682115264236927e-003</internalNodes>
          <leafValues>
            2.0126196742057800e-001 -9.3421496450901031e-002</leafValues></_>
        <_>
          <internalNodes>
            0 -1 281 1.5405048616230488e-003</internalNodes>
          <leafValues>
            5.9300430119037628e-002 -3.2189339399337769e-001</leafValues></_>
        <_>
          <internalNodes>
            0 -1 256 -1.3536844402551651e-002</internalNodes>
          <leafValues>
            -5.8984750509262085e-001 3.2105382531881332e-002</leafValues></_>
        <_>
          <internalNodes>
            0 -1 379 -4.2540158028714359e-004</internalNodes>
          <leafValues>
            1.7686614394187927e-001 -1.2332258373498917e-001</leafValues></_>
        <_>
          <internalNodes>
            0 -1 539 -2.5349929928779602e-003</internalNodes>
          <leafValues>
            -4.2357334494590759e-001 4.8739399760961533e-002</leafValues></_>
        <_>
          <internalNodes>
            0 -1 506 1.3524396345019341e-002</internalNodes>
          <leafValues>
            -4.8588816076517105e-002 4.5284673571586609e-001</leafValues></_></weakClassifiers></_>
    <!-- stage 6 -->
    <_>
      <maxWeakCount>72</maxWeakCount>
      <stageThreshold>-6.5952360630035400e-001</stageThreshold>
      <weakClassifiers>
        <_>
          <internalNodes>
            0 -1 276 4.2962711304426193e-003</internalNodes>
          <leafValues>
            1.8918919563293457e-001 5.6521737575531006e-001</leafValues></_>
        <_>
          <internalNodes>
            0 -1 135 -5.4347466677427292e-002</internalNodes>
          <leafValues>
            3.8879498839378357e-001 -6.9685347378253937e-002</leafValues></_>
        <_>
          <internalNodes>
            0 -1 466 -3.5334334825165570e-004</internalNodes>
          <leafValues>
            1.0847298055887222e-001 -1.9947186112403870e-001</leafValues></_>
        <_>
          <internalNodes>
            0 -1 312 -1.5326928114518523e-003</internalNodes>
          <leafValues>
            -1.7189516127109528e-001 1.4898824691772461e-001</leafValues></_>
        <_>
          <internalNodes>
            0 -1 167 2.7384643908590078e-003</internalNodes>
          <leafValues>
            -9.8219074308872223e-002 2.8215670585632324e-001</leafValues></_>
        <_>
          <internalNodes>
            0 -1 147 -5.5075767450034618e-003</internalNodes>
          <leafValues>
            3.3114320039749146e-001 -7.8613117337226868e-002</leafValues></_>
        <_>
          <internalNodes>
            0 -1 354 -1.3727420009672642e-002</internalNodes>
          <leafValues>
            -4.3732619285583496e-001 4.1076112538576126e-002</leafValues></_>
        <_>
          <internalNodes>
            0 -1 446 2.9235137626528740e-003</internalNodes>
          <leafValues>
            3.9610866457223892e-002 -4.6534487605094910e-001</leafValues></_>
        <_>
          <internalNodes>
            0 -1 230 -5.7024494744837284e-003</internalNodes>
          <leafValues>
            -2.6449030637741089e-001 7.7563971281051636e-002</leafValues></_>
        <_>
          <internalNodes>
            0 -1 493 9.1604609042406082e-003</internalNodes>
          <leafValues>
            6.6275827586650848e-002 -3.3711850643157959e-001</leafValues></_>
        <_>
          <internalNodes>
            0 -1 427 2.2525116801261902e-003</internalNodes>
          <leafValues>
            -9.7602084279060364e-002 2.1894645690917969e-001</leafValues></_>
        <_>
          <internalNodes>
            0 -1 428 -3.5261076409369707e-003</internalNodes>
          <leafValues>
            2.7663776278495789e-001 -8.1099547445774078e-002</leafValues></_>
        <_>
          <internalNodes>
            0 -1 227 2.0920394454151392e-003</internalNodes>
          <leafValues>
            -9.4803221523761749e-002 2.1163958311080933e-001</leafValues></_>
        <_>
          <internalNodes>
            0 -1 387 4.6841427683830261e-003</internalNodes>
          <leafValues>
            7.9620219767093658e-002 -2.4677927792072296e-001</leafValues></_>
        <_>
          <internalNodes>
            0 -1 298 -1.0225988924503326e-002</internalNodes>
          <leafValues>
            -5.5717605352401733e-001 3.6619994789361954e-002</leafValues></_>
        <_>
          <internalNodes>
            0 -1 486 4.9420562572777271e-003</internalNodes>
          <leafValues>
            2.7500292286276817e-002 -7.6075732707977295e-001</leafValues></_>
        <_>
          <internalNodes>
            0 -1 181 -1.1886234860867262e-003</internalNodes>
          <leafValues>
            2.1217676997184753e-001 -8.9989699423313141e-002</leafValues></_>
        <_>
          <internalNodes>
            0 -1 33 -3.2669054344296455e-003</internalNodes>
          <leafValues>
            2.0149567723274231e-001 -9.7387075424194336e-002</leafValues></_>
        <_>
          <internalNodes>
            0 -1 44 3.5676443949341774e-003</internalNodes>
          <leafValues>
            3.2880838960409164e-002 -5.8805072307586670e-001</leafValues></_>
        <_>
          <internalNodes>
            0 -1 77 -1.1593093164265156e-002</internalNodes>
          <leafValues>
            2.1409009397029877e-001 -9.3142896890640259e-002</leafValues></_>
        <_>
          <internalNodes>
            0 -1 533 -2.3112692870199680e-003</internalNodes>
          <leafValues>
            2.4305973947048187e-001 -8.5845008492469788e-002</leafValues></_>
        <_>
          <internalNodes>
            0 -1 404 8.7905686814337969e-004</internalNodes>
          <leafValues>
            -1.1367098987102509e-001 2.0774802565574646e-001</leafValues></_>
        <_>
          <internalNodes>
            0 -1 310 -8.8691357523202896e-003</internalNodes>
          <leafValues>
            -6.8696165084838867e-001 2.7939787134528160e-002</leafValues></_>
        <_>
          <internalNodes>
            0 -1 530 -1.9638221710920334e-003</internalNodes>
          <leafValues>
            1.8433833122253418e-001 -1.1080733686685562e-001</leafValues></_>
        <_>
          <internalNodes>
            0 -1 370 -2.9833228327333927e-003</internalNodes>
          <leafValues>
            -4.7466993331909180e-001 4.6141006052494049e-002</leafValues></_>
        <_>
          <internalNodes>
            0 -1 455 -2.0598839968442917e-002</internalNodes>
          <leafValues>
            -5.4008746147155762e-001 3.2734598964452744e-002</leafValues></_>
        <_>
          <internalNodes>
            0 -1 306 -8.9197198394685984e-004</internalNodes>
          <leafValues>
            1.8648074567317963e-001 -1.0008043050765991e-001</leafValues></_>
        <_>
          <internalNodes>
            0 -1 555 7.8138662502169609e-003</internalNodes>
          <leafValues>
            -6.7058384418487549e-002 2.8583008050918579e-001</leafValues></_>
        <_>
          <internalNodes>
            0 -1 393 3.4396718256175518e-003</internalNodes>
          <leafValues>
            3.6469653248786926e-002 -6.0203224420547485e-001</leafValues></_>
        <_>
          <internalNodes>
            0 -1 487 -3.9579598233103752e-003</internalNodes>
          <leafValues>
            -6.2840455770492554e-001 2.5919763371348381e-002</leafValues></_>
        <_>
          <internalNodes>
            0 -1 43 -7.8360866755247116e-003</internalNodes>
          <leafValues>
            2.9231810569763184e-001 -6.5521426498889923e-002</leafValues></_>
        <_>
          <internalNodes>
            0 -1 243 -6.8892734125256538e-003</internalNodes>
          <leafValues>
            -7.2250807285308838e-001 2.6755686849355698e-002</leafValues></_>
        <_>
          <internalNodes>
            0 -1 152 -7.3630560655146837e-004</internalNodes>
          <leafValues>
            1.4996126294136047e-001 -1.3720893859863281e-001</leafValues></_>
        <_>
          <internalNodes>
            0 -1 515 4.1174977086484432e-003</internalNodes>
          <leafValues>
            4.3035104870796204e-002 -4.5684260129928589e-001</leafValues></_>
        <_>
          <internalNodes>
            0 -1 386 9.5285818679258227e-004</internalNodes>
          <leafValues>
            -1.3110761344432831e-001 1.5462476015090942e-001</leafValues></_>
        <_>
          <internalNodes>
            0 -1 385 4.7312799142673612e-004</internalNodes>
          <leafValues>
            -1.2578833103179932e-001 1.6198958456516266e-001</leafValues></_>
        <_>
          <internalNodes>
            0 -1 220 -1.3204254209995270e-003</internalNodes>
          <leafValues>
            2.6795426011085510e-001 -6.9649718701839447e-002</leafValues></_>
        <_>
          <internalNodes>
            0 -1 224 4.6179634518921375e-003</internalNodes>
          <leafValues>
            -6.3586562871932983e-002 3.2969209551811218e-001</leafValues></_>
        <_>
          <internalNodes>
            0 -1 118 -8.2129202783107758e-003</internalNodes>
          <leafValues>
            -3.7439677119255066e-001 5.5679414421319962e-002</leafValues></_>
        <_>
          <internalNodes>
            0 -1 23 7.6090367510914803e-003</internalNodes>
          <leafValues>
            -9.7083777189254761e-002 2.0304961502552032e-001</leafValues></_>
        <_>
          <internalNodes>
            0 -1 372 -1.1330807581543922e-002</internalNodes>
          <leafValues>
            -7.1901452541351318e-001 2.7934705838561058e-002</leafValues></_>
        <_>
          <internalNodes>
            0 -1 221 3.5182889550924301e-003</internalNodes>
          <leafValues>
            2.9334245249629021e-002 -5.8745485544204712e-001</leafValues></_>
        <_>
          <internalNodes>
            0 -1 149 3.1679971143603325e-003</internalNodes>
          <leafValues>
            7.2911523282527924e-002 -2.4735240638256073e-001</leafValues></_>
        <_>
          <internalNodes>
            0 -1 450 6.7175747826695442e-003</internalNodes>
          <leafValues>
            -7.8174352645874023e-002 2.4491526186466217e-001</leafValues></_>
        <_>
          <internalNodes>
            0 -1 528 -2.5154599919915199e-002</internalNodes>
          <leafValues>
            3.9746531844139099e-001 -6.0288731008768082e-002</leafValues></_>
        <_>
          <internalNodes>
            0 -1 491 9.8183029331266880e-004</internalNodes>
          <leafValues>
            -1.3249260187149048e-001 1.9252850115299225e-001</leafValues></_>
        <_>
          <internalNodes>
            0 -1 327 -2.4148654192686081e-003</internalNodes>
          <leafValues>
            -4.2438942193984985e-001 4.7968175262212753e-002</leafValues></_>
        <_>
          <internalNodes>
            0 -1 371 -4.3534897267818451e-003</internalNodes>
          <leafValues>
            3.1746646761894226e-001 -6.6517218947410583e-002</leafValues></_>
        <_>
          <internalNodes>
            0 -1 272 4.7920388169586658e-003</internalNodes>
          <leafValues>
            7.7823281288146973e-002 -2.5328671932220459e-001</leafValues></_>
        <_>
          <internalNodes>
            0 -1 378 -7.7660441398620605e-002</internalNodes>
          <leafValues>
            -3.8052019476890564e-001 5.2084147930145264e-002</leafValues></_>
        <_>
          <internalNodes>
            0 -1 67 4.2692897841334343e-003</internalNodes>
          <leafValues>
            1.0230627655982971e-001 -1.9333453476428986e-001</leafValues></_>
        <_>
          <internalNodes>
            0 -1 72 3.0842218548059464e-003</internalNodes>
          <leafValues>
            -1.0745617747306824e-001 1.8618905544281006e-001</leafValues></_>
        <_>
          <internalNodes>
            0 -1 76 -3.7403809837996960e-003</internalNodes>
          <leafValues>
            -6.7194682359695435e-001 3.2606456428766251e-002</leafValues></_>
        <_>
          <internalNodes>
            0 -1 56 6.3702906481921673e-004</internalNodes>
          <leafValues>
            8.1147231161594391e-002 -2.3682223260402679e-001</leafValues></_>
        <_>
          <internalNodes>
            0 -1 270 3.5800953628495336e-004</internalNodes>
          <leafValues>
            -1.0554691404104233e-001 1.8823048472404480e-001</leafValues></_>
        <_>
          <internalNodes>
            0 -1 531 -3.9467565715312958e-002</internalNodes>
          <leafValues>
            -7.8764396905899048e-001 2.5394648313522339e-002</leafValues></_>
        <_>
          <internalNodes>
            0 -1 52 7.2292061522603035e-003</internalNodes>
          <leafValues>
            6.1785463243722916e-002 -2.9959449172019958e-001</leafValues></_>
        <_>
          <internalNodes>
            0 -1 115 8.5998382419347763e-003</internalNodes>
          <leafValues>
            -8.4352761507034302e-002 2.6022109389305115e-001</leafValues></_>
        <_>
          <internalNodes>
            0 -1 522 -1.1240416206419468e-003</internalNodes>
          <leafValues>
            2.4963004887104034e-001 -8.3082966506481171e-002</leafValues></_>
        <_>
          <internalNodes>
            0 -1 508 -2.1417466923594475e-003</internalNodes>
          <leafValues>
            2.4354077875614166e-001 -8.0879688262939453e-002</leafValues></_>
        <_>
          <internalNodes>
            0 -1 511 2.4980688467621803e-003</internalNodes>
          <leafValues>
            5.1546197384595871e-002 -4.2594009637832642e-001</leafValues></_>
        <_>
          <internalNodes>
            0 -1 54 7.0367986336350441e-003</internalNodes>
          <leafValues>
            -7.5345061719417572e-002 2.8440484404563904e-001</leafValues></_>
        <_>
          <internalNodes>
            0 -1 282 4.7094728797674179e-003</internalNodes>
          <leafValues>
            4.1084706783294678e-002 -5.1816928386688232e-001</leafValues></_>
        <_>
          <internalNodes>
            0 -1 318 3.0627683736383915e-003</internalNodes>
          <leafValues>
            -1.0458039492368698e-001 2.1254128217697144e-001</leafValues></_>
        <_>
          <internalNodes>
            0 -1 414 -1.1474776547402143e-003</internalNodes>
          <leafValues>
            2.1830947697162628e-001 -9.4458751380443573e-002</leafValues></_>
        <_>
          <internalNodes>
            0 -1 249 5.5139861069619656e-004</internalNodes>
          <leafValues>
            -9.4103857874870300e-002 2.1654303371906281e-001</leafValues></_>
        <_>
          <internalNodes>
            0 -1 443 -6.3396466430276632e-004</internalNodes>
          <leafValues>
            1.6325634717941284e-001 -1.1610881984233856e-001</leafValues></_>
        <_>
          <internalNodes>
            0 -1 479 -8.4615740925073624e-003</internalNodes>
          <leafValues>
            -6.3470524549484253e-001 3.3150769770145416e-002</leafValues></_>
        <_>
          <internalNodes>
            0 -1 142 -8.1903883256018162e-004</internalNodes>
          <leafValues>
            1.5705329179763794e-001 -1.1834471672773361e-001</leafValues></_>
        <_>
          <internalNodes>
            0 -1 374 -5.7483336422592402e-004</internalNodes>
          <leafValues>
            1.8271003663539886e-001 -1.0614698380231857e-001</leafValues></_>
        <_>
          <internalNodes>
            0 -1 492 -5.8645512908697128e-003</internalNodes>
          <leafValues>
            -3.6109757423400879e-001 5.4829087108373642e-002</leafValues></_>
        <_>
          <internalNodes>
            0 -1 131 -2.8174057602882385e-002</internalNodes>
          <leafValues>
            -4.2487543821334839e-001 4.3458223342895508e-002</leafValues></_></weakClassifiers></_>
    <!-- stage 7 -->
    <_>
      <maxWeakCount>77</maxWeakCount>
      <stageThreshold>-6.6331595182418823e-001</stageThreshold>
      <weakClassifiers>
        <_>
          <internalNodes>
            0 -1 236 8.7584340944886208e-003</internalNodes>
          <leafValues>
            1.9867549836635590e-001 6.0810810327529907e-001</leafValues></_>
        <_>
          <internalNodes>
            0 -1 216 1.8112268298864365e-002</internalNodes>
          <leafValues>
            -3.1989824026823044e-002 4.6144250035285950e-001</leafValues></_>
        <_>
          <internalNodes>
            0 -1 165 2.3634675890207291e-003</internalNodes>
          <leafValues>
            -1.2022738903760910e-001 2.3298762738704681e-001</leafValues></_>
        <_>
          <internalNodes>
            0 -1 41 -3.7304102443158627e-003</internalNodes>
          <leafValues>
            2.6013544201850891e-001 -9.7075261175632477e-002</leafValues></_>
        <_>
          <internalNodes>
            0 -1 304 -2.2711532190442085e-002</internalNodes>
          <leafValues>
            -2.4241569638252258e-001 8.1206381320953369e-002</leafValues></_>
        <_>
          <internalNodes>
            0 -1 342 9.9185127764940262e-003</internalNodes>
          <leafValues>
            1.0409937798976898e-001 -2.3815578222274780e-001</leafValues></_>
        <_>
          <internalNodes>
            0 -1 341 -7.1888724341988564e-003</internalNodes>
          <leafValues>
            -3.8646218180656433e-001 6.3159734010696411e-002</leafValues></_>
        <_>
          <internalNodes>
            0 -1 319 6.0035879723727703e-003</internalNodes>
          <leafValues>
            -7.7990867197513580e-002 2.7027118206024170e-001</leafValues></_>
        <_>
          <internalNodes>
            0 -1 192 -1.8394417129456997e-003</internalNodes>
          <leafValues>
            1.8870715796947479e-001 -1.2058445811271667e-001</leafValues></_>
        <_>
          <internalNodes>
            0 -1 10 -6.0729659162461758e-004</internalNodes>
          <leafValues>
            1.5593612194061279e-001 -1.3788472115993500e-001</leafValues></_>
        <_>
          <internalNodes>
            0 -1 445 -2.9218985582701862e-004</internalNodes>
          <leafValues>
            1.4348948001861572e-001 -1.3414859771728516e-001</leafValues></_>
        <_>
          <internalNodes>
            0 -1 411 -2.8685072902590036e-004</internalNodes>
          <leafValues>
            1.4454951882362366e-001 -1.3005003333091736e-001</leafValues></_>
        <_>
          <internalNodes>
            0 -1 315 -1.3415969908237457e-002</internalNodes>
          <leafValues>
            -5.4971873760223389e-001 3.3931318670511246e-002</leafValues></_>
        <_>
          <internalNodes>
            0 -1 12 3.2019584905356169e-003</internalNodes>
          <leafValues>
            3.7795368582010269e-002 -5.2905124425888062e-001</leafValues></_>
        <_>
          <internalNodes>
            0 -1 505 -1.1068894527852535e-002</internalNodes>
          <leafValues>
            3.8011890649795532e-001 -5.5768795311450958e-002</leafValues></_>
        <_>
          <internalNodes>
            0 -1 405 -6.3693511765450239e-004</internalNodes>
          <leafValues>
            2.1224065124988556e-001 -1.0219439864158630e-001</leafValues></_>
        <_>
          <internalNodes>
            0 -1 477 -1.6123626846820116e-003</internalNodes>
          <leafValues>
            2.3012511432170868e-001 -9.4507157802581787e-002</leafValues></_>
        <_>
          <internalNodes>
            0 -1 512 9.1060770500916988e-005</internalNodes>
          <leafValues>
            -1.2903340160846710e-001 1.5640456974506378e-001</leafValues></_>
        <_>
          <internalNodes>
            0 -1 383 -5.3618918173015118e-004</internalNodes>
          <leafValues>
            1.7728762328624725e-001 -1.0710205882787704e-001</leafValues></_>
        <_>
          <internalNodes>
            0 -1 423 -7.8660645522177219e-004</internalNodes>
          <leafValues>
            2.0899200439453125e-001 -9.9663905799388885e-002</leafValues></_>
        <_>
          <internalNodes>
            0 -1 123 -5.0672747194766998e-002</internalNodes>
          <leafValues>
            -5.7943439483642578e-001 3.2985702157020569e-002</leafValues></_>
        <_>
          <internalNodes>
            0 -1 103 -4.7700211871415377e-004</internalNodes>
          <leafValues>
            1.4259701967239380e-001 -1.2772966921329498e-001</leafValues></_>
        <_>
          <internalNodes>
            0 -1 335 -7.5195822864770889e-004</internalNodes>
          <leafValues>
            1.9912187755107880e-001 -9.5429226756095886e-002</leafValues></_>
        <_>
          <internalNodes>
            0 -1 376 -4.2267879471182823e-003</internalNodes>
          <leafValues>
            -6.1495989561080933e-001 3.3465579152107239e-002</leafValues></_>
        <_>
          <internalNodes>
            0 -1 94 4.9794735386967659e-003</internalNodes>
          <leafValues>
            -9.2560939490795135e-002 2.1693214774131775e-001</leafValues></_>
        <_>
          <internalNodes>
            0 -1 300 -4.3258601799607277e-003</internalNodes>
          <leafValues>
            -5.5459940433502197e-001 3.6045715212821960e-002</leafValues></_>
        <_>
          <internalNodes>
            0 -1 382 1.7599118873476982e-003</internalNodes>
          <leafValues>
            -1.4217336475849152e-001 1.3696956634521484e-001</leafValues></_>
        <_>
          <internalNodes>
            0 -1 439 -6.6733565181493759e-003</internalNodes>
          <leafValues>
            -4.7658365964889526e-001 4.3392971158027649e-002</leafValues></_>
        <_>
          <internalNodes>
            0 -1 457 2.1991124376654625e-002</internalNodes>
          <leafValues>
            -8.3713285624980927e-002 2.3823706805706024e-001</leafValues></_>
        <_>
          <internalNodes>
            0 -1 472 -1.1099521070718765e-003</internalNodes>
          <leafValues>
            1.6413560509681702e-001 -1.5066875517368317e-001</leafValues></_>
        <_>
          <internalNodes>
            0 -1 459 2.2638123482465744e-002</internalNodes>
          <leafValues>
            1.0545162856578827e-001 -1.9968494772911072e-001</leafValues></_>
        <_>
          <internalNodes>
            0 -1 245 5.1590770483016968e-002</internalNodes>
          <leafValues>
            1.0761817544698715e-001 -1.8730689585208893e-001</leafValues></_>
        <_>
          <internalNodes>
            0 -1 244 -4.8824297264218330e-003</internalNodes>
          <leafValues>
            2.1017470955848694e-001 -8.9856125414371490e-002</leafValues></_>
        <_>
          <internalNodes>
            0 -1 153 -1.9599911570549011e-001</internalNodes>
          <leafValues>
            6.9193631410598755e-001 -3.0847869813442230e-002</leafValues></_>
        <_>
          <internalNodes>
            0 -1 478 -5.3323083557188511e-003</internalNodes>
          <leafValues>
            -5.1293367147445679e-001 4.0622070431709290e-002</leafValues></_>
        <_>
          <internalNodes>
            0 -1 560 -6.8892410490661860e-004</internalNodes>
          <leafValues>
            -2.0832008123397827e-001 8.2488901913166046e-002</leafValues></_>
        <_>
          <internalNodes>
            0 -1 188 -7.8047662973403931e-003</internalNodes>
          <leafValues>
            2.9340296983718872e-001 -6.5359510481357574e-002</leafValues></_>
        <_>
          <internalNodes>
            0 -1 510 1.0396328289061785e-003</internalNodes>
          <leafValues>
            -1.1431787163019180e-001 1.7837993800640106e-001</leafValues></_>
        <_>
          <internalNodes>
            0 -1 521 -2.2756021935492754e-003</internalNodes>
          <leafValues>
            2.1855734288692474e-001 -8.0171063542366028e-002</leafValues></_>
        <_>
          <internalNodes>
            0 -1 222 -9.3173515051603317e-004</internalNodes>
          <leafValues>
            1.5619164705276489e-001 -1.2105203419923782e-001</leafValues></_>
        <_>
          <internalNodes>
            0 -1 104 1.1768814921379089e-001</internalNodes>
          <leafValues>
            -2.8045115992426872e-002 5.6893008947372437e-001</leafValues></_>
        <_>
          <internalNodes>
            0 -1 90 -1.5972885303199291e-003</internalNodes>
          <leafValues>
            2.2822037339210510e-001 -7.5774207711219788e-002</leafValues></_>
        <_>
          <internalNodes>
            0 -1 38 -1.6444813460111618e-002</internalNodes>
          <leafValues>
            -3.9798793196678162e-001 4.7200966626405716e-002</leafValues></_>
        <_>
          <internalNodes>
            0 -1 447 -1.2865765020251274e-003</internalNodes>
          <leafValues>
            1.8311096727848053e-001 -1.0612410306930542e-001</leafValues></_>
        <_>
          <internalNodes>
            0 -1 480 -8.0441785976290703e-003</internalNodes>
          <leafValues>
            -2.5925180315971375e-001 8.8481627404689789e-002</leafValues></_>
        <_>
          <internalNodes>
            0 -1 108 -2.5979999918490648e-004</internalNodes>
          <leafValues>
            1.4345966279506683e-001 -1.2818904221057892e-001</leafValues></_>
        <_>
          <internalNodes>
            0 -1 544 -9.7892330959439278e-003</internalNodes>
          <leafValues>
            -6.2782335281372070e-001 2.9447963461279869e-002</leafValues></_>
        <_>
          <internalNodes>
            0 -1 392 -4.5295329764485359e-003</internalNodes>
          <leafValues>
            -6.6266030073165894e-001 2.4789417162537575e-002</leafValues></_>
        <_>
          <internalNodes>
            0 -1 412 3.3922769129276276e-002</internalNodes>
          <leafValues>
            4.4466435909271240e-002 -3.7646919488906860e-001</leafValues></_>
        <_>
          <internalNodes>
            0 -1 516 -4.3490663170814514e-002</internalNodes>
          <leafValues>
            4.2353731393814087e-001 -4.7656714916229248e-002</leafValues></_>
        <_>
          <internalNodes>
            0 -1 287 -1.2055323168169707e-004</internalNodes>
          <leafValues>
            1.3094976544380188e-001 -1.3504992425441742e-001</leafValues></_>
        <_>
          <internalNodes>
            0 -1 275 -2.8671200852841139e-003</internalNodes>
          <leafValues>
            2.4103561043739319e-001 -7.5427234172821045e-002</leafValues></_>
        <_>
          <internalNodes>
            0 -1 361 3.3406047150492668e-003</internalNodes>
          <leafValues>
            4.1502274572849274e-002 -4.7614946961402893e-001</leafValues></_>
        <_>
          <internalNodes>
            0 -1 122 1.9305857131257653e-004</internalNodes>
          <leafValues>
            1.0784386098384857e-001 -1.7235036194324493e-001</leafValues></_>
        <_>
          <internalNodes>
            0 -1 279 -3.9135804399847984e-003</internalNodes>
          <leafValues>
            3.2880574464797974e-001 -5.5170580744743347e-002</leafValues></_>
        <_>
          <internalNodes>
            0 -1 317 -1.2055914849042892e-003</internalNodes>
          <leafValues>
            1.7665103077888489e-001 -1.1482469737529755e-001</leafValues></_>
        <_>
          <internalNodes>
            0 -1 501 -6.3726450316607952e-003</internalNodes>
          <leafValues>
            1.8221428990364075e-001 -9.7754448652267456e-002</leafValues></_>
        <_>
          <internalNodes>
            0 -1 499 2.9609403572976589e-003</internalNodes>
          <leafValues>
            -1.0064399987459183e-001 1.8023960292339325e-001</leafValues></_>
        <_>
          <internalNodes>
            0 -1 553 -3.6308000562712550e-004</internalNodes>
          <leafValues>
            1.4528152346611023e-001 -1.2701192498207092e-001</leafValues></_>
        <_>
          <internalNodes>
            0 -1 138 -1.0987149178981781e-001</internalNodes>
          <leafValues>
            -5.1630949974060059e-001 3.5065606236457825e-002</leafValues></_>
        <_>
          <internalNodes>
            0 -1 48 -6.5591535530984402e-003</internalNodes>
          <leafValues>
            -5.7682877779006958e-001 2.8962006792426109e-002</leafValues></_>
        <_>
          <internalNodes>
            0 -1 8 5.5067939683794975e-003</internalNodes>
          <leafValues>
            -8.8104628026485443e-002 2.1523417532444000e-001</leafValues></_>
        <_>
          <internalNodes>
            0 -1 4 -4.4879596680402756e-003</internalNodes>
          <leafValues>
            1.8624207377433777e-001 -1.1174693703651428e-001</leafValues></_>
        <_>
          <internalNodes>
            0 -1 24 -1.7430221196264029e-003</internalNodes>
          <leafValues>
            -2.7246201038360596e-001 6.7050226032733917e-002</leafValues></_>
        <_>
          <internalNodes>
            0 -1 141 4.0383730083703995e-003</internalNodes>
          <leafValues>
            -6.4044475555419922e-002 2.8039082884788513e-001</leafValues></_>
        <_>
          <internalNodes>
            0 -1 209 4.0014207363128662e-002</internalNodes>
          <leafValues>
            6.4881101250648499e-002 -2.8457182645797729e-001</leafValues></_>
        <_>
          <internalNodes>
            0 -1 375 1.6552580054849386e-003</internalNodes>
          <leafValues>
            -1.2335864454507828e-001 1.5186505019664764e-001</leafValues></_>
        <_>
          <internalNodes>
            0 -1 250 2.3657788988202810e-003</internalNodes>
          <leafValues>
            -7.9445980489253998e-002 2.0990160107612610e-001</leafValues></_>
        <_>
          <internalNodes>
            0 -1 292 -1.7468733713030815e-003</internalNodes>
          <leafValues>
            1.9190008938312531e-001 -8.7935090065002441e-002</leafValues></_>
        <_>
          <internalNodes>
            0 -1 452 -3.4789484925568104e-003</internalNodes>
          <leafValues>
            2.0581981539726257e-001 -8.7869077920913696e-002</leafValues></_>
        <_>
          <internalNodes>
            0 -1 163 -6.5256487578153610e-003</internalNodes>
          <leafValues>
            -6.9541883468627930e-001 2.6255685836076736e-002</leafValues></_>
        <_>
          <internalNodes>
            0 -1 403 1.8846490420401096e-003</internalNodes>
          <leafValues>
            -9.0397849678993225e-002 2.0180802047252655e-001</leafValues></_>
        <_>
          <internalNodes>
            0 -1 403 -3.7085516378283501e-003</internalNodes>
          <leafValues>
            2.3430287837982178e-001 -9.4976797699928284e-002</leafValues></_>
        <_>
          <internalNodes>
            0 -1 25 4.6625867253169417e-004</internalNodes>
          <leafValues>
            1.1827287822961807e-001 -1.6491550207138062e-001</leafValues></_>
        <_>
          <internalNodes>
            0 -1 31 1.9096937030553818e-002</internalNodes>
          <leafValues>
            7.0232428610324860e-002 -2.5863587856292725e-001</leafValues></_>
        <_>
          <internalNodes>
            0 -1 97 -5.7199504226446152e-002</internalNodes>
          <leafValues>
            4.2299482226371765e-001 -4.3435916304588318e-002</leafValues></_>
        <_>
          <internalNodes>
            0 -1 66 -2.0279444754123688e-002</internalNodes>
          <leafValues>
            2.4409726262092590e-001 -7.1140810847282410e-002</leafValues></_></weakClassifiers></_>
    <!-- stage 8 -->
    <_>
      <maxWeakCount>79</maxWeakCount>
      <stageThreshold>-6.1299014091491699e-001</stageThreshold>
      <weakClassifiers>
        <_>
          <internalNodes>
            0 -1 232 3.8371827453374863e-002</internalNodes>
          <leafValues>
            2.4088291823863983e-001 6.4610391855239868e-001</leafValues></_>
        <_>
          <internalNodes>
            0 -1 133 -4.7769830562174320e-003</internalNodes>
          <leafValues>
            2.2764070332050323e-001 -1.0885970294475555e-001</leafValues></_>
        <_>
          <internalNodes>
            0 -1 481 1.3353334739804268e-002</internalNodes>
          <leafValues>
            -2.8742407448589802e-003 -4.6543121337890625e-001</leafValues></_>
        <_>
          <internalNodes>
            0 -1 75 2.6105586439371109e-003</internalNodes>
          <leafValues>
            -9.0003207325935364e-002 2.2464348375797272e-001</leafValues></_>
        <_>
          <internalNodes>
            0 -1 543 -4.8575056716799736e-003</internalNodes>
          <leafValues>
            2.0263323187828064e-001 -9.6128568053245544e-002</leafValues></_>
        <_>
          <internalNodes>
            0 -1 29 -8.2491990178823471e-003</internalNodes>
          <leafValues>
            2.0042170584201813e-001 -9.9073551595211029e-002</leafValues></_>
        <_>
          <internalNodes>
            0 -1 441 -2.1104484330862761e-003</internalNodes>
          <leafValues>
            2.6494643092155457e-001 -9.6325568854808807e-002</leafValues></_>
        <_>
          <internalNodes>
            0 -1 204 -2.0659007132053375e-003</internalNodes>
          <leafValues>
            2.0448453724384308e-001 -9.6539825201034546e-002</leafValues></_>
        <_>
          <internalNodes>
            0 -1 39 3.5715736448764801e-002</internalNodes>
          <leafValues>
            4.6037342399358749e-002 -3.7187105417251587e-001</leafValues></_>
        <_>
          <internalNodes>
            0 -1 344 -3.9872322231531143e-003</internalNodes>
          <leafValues>
            -4.4044113159179688e-001 4.7330640256404877e-002</leafValues></_>
        <_>
          <internalNodes>
            0 -1 437 2.8758910484611988e-003</internalNodes>
          <leafValues>
            -7.0871137082576752e-002 2.9778739809989929e-001</leafValues></_>
        <_>
          <internalNodes>
            0 -1 550 8.9217728236690164e-004</internalNodes>
          <leafValues>
            6.9173619151115417e-002 -2.6276051998138428e-001</leafValues></_>
        <_>
          <internalNodes>
            0 -1 406 -1.6708758193999529e-003</internalNodes>
          <leafValues>
            2.2308959066867828e-001 -8.1271789968013763e-002</leafValues></_>
        <_>
          <internalNodes>
            0 -1 500 -2.7554822154343128e-003</internalNodes>
          <leafValues>
            -4.6986114978790283e-001 4.0085677057504654e-002</leafValues></_>
        <_>
          <internalNodes>
            0 -1 110 -3.4777647815644741e-003</internalNodes>
          <leafValues>
            1.9190318882465363e-001 -8.7605997920036316e-002</leafValues></_>
        <_>
          <internalNodes>
            0 -1 73 -6.4525688067078590e-003</internalNodes>
          <leafValues>
            -4.2350265383720398e-001 4.5603796839714050e-002</leafValues></_>
        <_>
          <internalNodes>
            0 -1 71 1.5209905104711652e-003</internalNodes>
          <leafValues>
            7.2209507226943970e-002 -2.9950562119483948e-001</leafValues></_>
        <_>
          <internalNodes>
            0 -1 203 -9.7281555645167828e-004</internalNodes>
          <leafValues>
            2.4575994908809662e-001 -7.3121979832649231e-002</leafValues></_>
        <_>
          <internalNodes>
            0 -1 171 -1.0652085766196251e-003</internalNodes>
          <leafValues>
            1.8678440153598785e-001 -1.0441470891237259e-001</leafValues></_>
        <_>
          <internalNodes>
            0 -1 237 6.8680191179737449e-004</internalNodes>
          <leafValues>
            -1.0608796030282974e-001 1.9727911055088043e-001</leafValues></_>
        <_>
          <internalNodes>
            0 -1 358 6.3159558922052383e-003</internalNodes>
          <leafValues>
            7.6241567730903625e-002 -2.5497236847877502e-001</leafValues></_>
        <_>
          <internalNodes>
            0 -1 329 -7.4430003762245178e-002</internalNodes>
          <leafValues>
            -2.1999891102313995e-001 8.3855882287025452e-002</leafValues></_>
        <_>
          <internalNodes>
            0 -1 332 2.8508245944976807e-002</internalNodes>
          <leafValues>
            4.1365038603544235e-002 -4.5237419009208679e-001</leafValues></_>
        <_>
          <internalNodes>
            0 -1 434 7.6554245315492153e-003</internalNodes>
          <leafValues>
            -5.5412720888853073e-002 3.6080384254455566e-001</leafValues></_>
        <_>
          <internalNodes>
            0 -1 293 1.3631685636937618e-002</internalNodes>
          <leafValues>
            -3.7106879055500031e-002 4.6633708477020264e-001</leafValues></_>
        <_>
          <internalNodes>
            0 -1 321 -2.4219998158514500e-003</internalNodes>
          <leafValues>
            -3.0221822857856750e-001 6.2341678887605667e-002</leafValues></_>
        <_>
          <internalNodes>
            0 -1 518 -1.6674101352691650e-003</internalNodes>
          <leafValues>
            -2.8999131917953491e-001 5.5536575615406036e-002</leafValues></_>
        <_>
          <internalNodes>
            0 -1 15 -1.1702703312039375e-002</internalNodes>
          <leafValues>
            2.7294459939002991e-001 -6.6478468477725983e-002</leafValues></_>
        <_>
          <internalNodes>
            0 -1 457 2.6959944516420364e-002</internalNodes>
          <leafValues>
            -6.3372500240802765e-002 2.7568617463111877e-001</leafValues></_>
        <_>
          <internalNodes>
            0 -1 453 -2.5725591927766800e-002</internalNodes>
          <leafValues>
            2.2804024815559387e-001 -8.1296920776367188e-002</leafValues></_>
        <_>
          <internalNodes>
            0 -1 470 -8.2507431507110596e-003</internalNodes>
          <leafValues>
            -4.0492358803749084e-001 4.9382310360670090e-002</leafValues></_>
        <_>
          <internalNodes>
            0 -1 99 4.2888653278350830e-001</internalNodes>
          <leafValues>
            -2.2646272554993629e-002 7.9678612947463989e-001</leafValues></_>
        <_>
          <internalNodes>
            0 -1 464 -8.4849866107106209e-004</internalNodes>
          <leafValues>
            1.6377089917659760e-001 -9.9013745784759521e-002</leafValues></_>
        <_>
          <internalNodes>
            0 -1 541 4.9135359004139900e-003</internalNodes>
          <leafValues>
            5.3101304918527603e-002 -3.6303967237472534e-001</leafValues></_>
        <_>
          <internalNodes>
            0 -1 368 -1.7519784159958363e-003</internalNodes>
          <leafValues>
            1.5755508840084076e-001 -1.1848140507936478e-001</leafValues></_>
        <_>
          <internalNodes>
            0 -1 50 -1.2998249381780624e-002</internalNodes>
          <leafValues>
            -3.2385423779487610e-001 5.4196700453758240e-002</leafValues></_>
        <_>
          <internalNodes>
            0 -1 267 -7.4786990880966187e-002</internalNodes>
          <leafValues>
            -3.6625602841377258e-001 4.9903362989425659e-002</leafValues></_>
        <_>
          <internalNodes>
            0 -1 258 -2.4399545509368181e-003</internalNodes>
          <leafValues>
            2.6132822036743164e-001 -6.7645989358425140e-002</leafValues></_>
        <_>
          <internalNodes>
            0 -1 220 -9.5333182252943516e-004</internalNodes>
          <leafValues>
            2.3083500564098358e-001 -9.8729237914085388e-002</leafValues></_>
        <_>
          <internalNodes>
            0 -1 362 -1.0409880429506302e-002</internalNodes>
          <leafValues>
            -7.8266626596450806e-001 2.3503793403506279e-002</leafValues></_>
        <_>
          <internalNodes>
            0 -1 208 5.7990483939647675e-002</internalNodes>
          <leafValues>
            3.6807667464017868e-002 -4.3413069844245911e-001</leafValues></_>
        <_>
